svm_type c_svc
kernel_type rbf
gamma 0.77786423617125855
nr_class 2
total_sv 8
rho 0.054620557353779152
label 1 0
nr_sv 4 4
SV
1 0:0.27351961 3:0.0036010528 4:0.27711427 5:0.20538591 6:0.05831407 8:0.30248293 13:0.201527 15:0.30117121 23:0.071631491 27:0.22965221 
0.81294095577994874 1:0.54052722 2:0.5541575 7:0.55791283 9:0.55632675 10:0.56537908 11:0.54941648 14:0.53278083 16:0.53495777 18:0.56669569 19:0.54798937 22:0.55505931 24:0.54968065 25:0.57241112 28:0.54540354 29:0.52402598 30:0.16531482 31:0.57406187 
1 1:0.17586806 2:0.17565109 7:0.17564724 9:0.18373409 10:0.18481955 11:0.17244369 14:0.18467227 16:0.1771871 18:0.18434656 19:0.16872379 22:0.18358612 24:0.17859223 25:0.18036501 28:0.18013619 29:0.17319956 31:0.18835315 
0.24580750745819235 1:0.25627661 2:0.27036875 7:0.27794522 9:0.26621571 10:0.27395841 11:0.26214626 14:0.25132152 16:0.25220522 18:0.27574033 19:0.25874683 22:0.28434563 24:0.26505378 25:0.27983209 28:0.28286797 29:0.26406333 31:0.2828764 
-0.81436320261935424 3:0.3605361 4:0.054577645 5:0.045274612 6:0.27462345 8:0.035508994 12:0.25750178 15:0.043862771 17:0.22196187 20:0.037746273 21:0.34461719 23:0.36258441 26:0.29313853 27:0.046769928 
-0.87616987607156893 0:0.37292746 3:0.082670264 4:0.41480038 5:0.30421391 6:0.084890038 8:0.40527555 12:0.016039802 13:0.31447986 15:0.414253 21:0.072999358 23:0.14816128 26:0.027233716 27:0.36494568 
-1 0:0.32665825 4:0.31951243 5:0.24730192 6:0.0065936432 8:0.34078065 13:0.25330457 15:0.31713071 23:0.0034145943 27:0.27364454 
-0.36821538454721792 3:0.41274172 6:0.39965966 12:0.34625018 17:0.3864629 20:0.22468907 21:0.37266698 23:0.44423422 26:0.40836588 30:0.075385474 
